tree
version=v4
num_class=1
num_tree_per_iteration=1
label_index=0
max_feature_idx=21
objective=binary sigmoid:1
feature_names=team_size avg_usage min_usage max_usage avg_viability pairwise_teammate_logweight_mean pairwise_teammate_logweight_min pairwise_teammate_fraction_nonzero pairwise_embedding_cos_mean pairwise_embedding_cos_min type_unique_count weakness_concentration weakness_unique_count role_unique_count stat_hp_mean stat_hp_std stat_atk_mean stat_spa_mean stat_speed_mean stat_def_mean stat_spd_mean is_legendary_count
feature_infos=none [0.16166666150093079:0.67500001192092896] [0.10000000149011612:0.44999998807907104] [0.2199999988079071:0.85000002384185791] [0.83333331346511841:5] [3.6343672275543213:9.7906465530395508] [0:9.4727811813354492] [0.46666666865348816:1] [0.76584327220916748:0.90664440393447876] [0.62880367040634155:0.87282896041870117] [4:11] [2:4] [7:17] [2:4] [75:135.83332824707031] [7.3124699592590332:72.284164428710938] [65:121.5] [68.333335876464844:105] [57.666667938232422:104.16666412353516] [57.5:114.16666412353516] [74.166664123535156:108.33333587646484] [0:3]
tree_sizes=3132 3143 3057 3058 2855 3167 3062 3275 3287 2961 3166 2766 3374 3270 3247 3278 3175 3174 3184 2954 3407 3184

Tree=0
num_leaves=29
num_cat=0
split_feature=5 5 8 6 12 18 18 8 19 19 18 15 19 11 8 11 5 11 19 5 12 18 19 17 15 3 3 5
split_gain=493.264 102.054 32.1208 25.3339 15.8211 15.3121 14.9015 14.7071 10.8458 9.82011 8.69943 6.55697 7.42671 5.29628 2.63891 2.57801 2.47227 3.47629 3.48778 2.0914 1.79811 1.48548 0.662702 0.527804 0.323541 0.113887 1.42109e-14 3.55271e-15
threshold=8.8545770645141619 7.5843839645385751 0.819288730621338 8.2275519371032733 13.500000000000002 64.750000000000014 75.500000000000014 0.83396223187446605 92.916667938232436 103.75000000000001 77.166667938232436 65.627269744873061 98.750000000000014 2.5000000000000004 0.83579513430595409 2.5000000000000004 6.2705068588256845 2.5000000000000004 81.250000000000014 7.394740343093873 14.500000000000002 84.666667938232436 88.750000000000014 96.250000000000014 63.470243453979499 0.3900000005960465 0.34000000357627874 9.4257454872131365
decision_type=2 2 2 2 2 2 2 2 2 2 2 2 2 2 2 2 2 2 2 2 2 2 2 2 2 2 2 2
left_child=1 16 4 5 9 22 13 -8 -6 -3 20 12 -7 -4 -13 -12 23 18 -18 -19 24 -17 27 26 -5 -24 -1 -2
right_child=3 2 6 10 8 11 7 -9 -10 -11 15 14 -14 -15 -16 21 17 19 -20 -21 -22 -23 25 -25 -26 -27 -28 -29
leaf_value=-0.75784313947250959 -0.53362890156391229 -0.69189777538174579 -0.5523134213896288 -0.55142368235030903 -0.73661575600187323 -0.61171346202959298 -0.64383589985796863 -0.72581253405699575 -0.67812252154945285 -0.56565950697942624 -0.645736020518211 -0.64199911655306774 -0.67936815620450064 -0.62836731194782669 -0.68777619012607305 -0.59211957232267687 -0.74538679292203203 -0.74793311790748884 -0.7017895799953604 -0.7323642488010782 -0.6083669808667781 -0.53362890156391229 -0.57847174914563193 -0.72981635973393499 -0.53362890156391229 -0.55854159466486764 -0.7578431394725097 -0.53362890156391252
leaf_weight=8.0280361175537163 2.2300100326538077 117.52152872085571 2.6760120391845712 14.049063205718999 37.687169551849365 44.823201656341553 13.157059192657472 9.3660421371459943 10.035045146942137 1.5610070228576649 2.2300100326538077 26.760120391845707 4.4600200653076163 15.833071231842041 3.5680160522460929 41.032184600830078 8.0280361175537127 80.726363182067871 10.704048156738279 29.436132431030273 1.338006019592284 1.1150050163269032 1.1150050163269045 1.7840080261230458 3.1220140457153311 2.0070090293884277 20.73909330368042 1.1150050163269045
leaf_count=36 10 527 12 63 169 201 59 42 45 7 10 120 20 71 16 184 36 362 48 132 6 5 5 8 14 9 93 5
internal_value=-0.682201 -0.713327 -0.690242 -0.605458 -0.699991 -0.623082 -0.65061 -0.677925 -0.724316 -0.690243 -0.581334 -0.629093 -0.617836 -0.617372 -0.647385 -0.593344 -0.743418 -0.740387 -0.720474 -0.743773 -0.552539 -0.590572 -0.549092 -0.756207 -0.548188 -0.56566 -0.757843 -0.533629
internal_weight=516.247 367.283 207.837 148.965 166.805 86.0784 41.0322 22.5231 47.7222 119.083 62.8863 79.6114 49.2832 18.5091 30.3281 44.3772 159.446 128.895 18.7321 110.162 18.5091 42.1472 6.46703 30.5511 17.1711 3.12201 28.7671 3.34502
internal_count=2315 1647 932 668 748 386 184 101 214 534 282 357 221 83 136 199 715 578 84 494 83 189 29 137 77 14 129 15
is_linear=0
shrinkage=1


Tree=1
num_leaves=29
num_cat=0
split_feature=5 5 4 6 17 14 9 5 5 15 18 5 19 1 5 5 11 19 5 11 19 19 17 11 19 15 1 2
split_gain=416.188 107.655 30.9871 25.7558 18.0747 13.0047 12.4027 14.8128 13.9176 6.33798 4.47041 4.24995 3.93708 3.73655 2.99697 2.3131 3.46016 3.56494 2.1325 2.07649 1.19972 1.13125 0.552992 2.30641 0.510265 0.278894 0.0175167 0.000890759
threshold=8.8545770645141619 7.5982127189636239 4.5833332538604745 8.2275519371032733 86.250000000000014 125.41666793823244 0.71155238151550304 8.2820310592651385 8.7765588760375994 65.627269744873061 77.166667938232436 8.2087655067443865 98.750000000000014 0.28249999880790716 8.9753193855285662 6.6058630943298349 2.5000000000000004 84.583332061767592 7.369070529937745 2.5000000000000004 104.58333206176759 82.916667938232436 92.916667938232436 2.5000000000000004 88.750000000000014 63.470243453979499 0.32416665554046636 0.14000000059604648
decision_type=2 2 2 2 2 2 2 2 2 2 2 2 2 2 2 2 2 2 2 2 2 2 2 2 2 2 2 2
left_child=1 15 6 5 11 9 8 -8 -3 12 21 -4 -2 -6 -11 22 17 -17 -18 -12 -21 -5 27 -24 -7 -23 -26 -1
right_child=3 2 4 10 13 24 7 -9 -10 14 19 -13 -14 -15 -16 16 18 -19 -20 20 -22 25 23 -25 26 -27 -28 -29
leaf_value=-0.073462272234857115 0.063456155338798378 -0.02876366921945557 0.019381429761315117 0.07696514582123648 -0.0368449886391553 0.13525543080348709 -0.020681596362152544 0.079536378459580642 0.003770928600717989 0.048543640806640038 0.034577848686821594 0.072260151362731173 0.016280670438161934 0.015260132055269621 0.016541517522165466 -0.054249315336546991 -0.06573298519363388 -0.0070890135027490038 -0.050853905932099257 0.091014425384383743 0.046941457737792333 0.11787448323023278 0.0013712740735850933 -0.073628298380111881 0.10296499853274982 0.13525543080348709 0.11040503107081488 -0.074784866241849754
leaf_weight=29.997718364000324 44.459561258554459 103.21379393339157 4.7206119447946575 1.6119374781847025 6.6255919933319074 3.2622006237506858 7.344543904066084 7.4041291177272797 48.231467261910439 12.418538704514505 1.8051898479461659 19.480345278978348 4.9111876189708701 7.15784852206707 17.80471333861351 10.08908385038376 63.018255278468132 6.6473789513111106 38.974396049976349 40.602134093642235 1.6051476150751103 13.219379916787149 1.320987433195113 4.5762520581483841 1.3811945915222168 2.7961719632148734 1.8517816066741943 1.3294757902622212
leaf_count=138 195 466 21 7 30 14 33 33 217 55 8 86 22 32 79 46 289 30 178 177 7 57 6 21 6 12 8 6
internal_value=0.000270384 -0.0287194 -0.00482752 0.0709411 0.0359162 0.0532754 -0.0141397 0.0296298 -0.0184022 0.0477241 0.0956139 0.0619457 0.0587633 -0.00978639 0.029691 -0.0599992 -0.0565896 -0.0355182 -0.0600473 0.0870923 0.0893383 0.116891 -0.0708743 -0.0568283 0.121304 0.120909 0.107226 -0.0735184
internal_weight=507.861 360.132 204.178 147.729 37.9844 86.0892 166.194 14.7487 151.445 79.594 61.64 24.201 49.3707 13.7834 30.2233 155.954 118.729 16.7365 101.993 44.0125 42.2073 17.6275 37.2244 5.89724 6.49518 16.0156 3.23298 31.3272
internal_count=2279 1632 918 647 169 379 749 66 683 351 268 107 217 62 134 714 543 76 467 192 184 76 171 27 28 69 14 144
is_linear=0
shrinkage=0.05


Tree=2
num_leaves=28
num_cat=0
split_feature=5 5 9 8 12 2 1 18 15 20 4 18 15 20 16 17 5 16 5 18 14 15 12 17 1 1 17
split_gain=394.136 86.5999 30.4257 27.6648 19.7545 14.1477 13.0329 9.2178 8.58523 8.26975 7.44215 7.31298 6.93351 5.55579 4.85065 3.32997 3.1739 2.71641 1.68269 1.34118 2.30197 1.58994 0.556552 0.373522 0.415475 0.124657 1.01651e-08
threshold=8.8398222923278826 7.5664544105529794 0.6902303695678712 0.80879512429237377 13.500000000000002 0.14000000059604648 0.29916667938232427 70.500000000000014 68.811824798583999 92.083332061767592 4.5833332538604745 78.000000000000014 14.74286985397339 93.750000000000014 98.666667938232436 73.750000000000014 9.2931122779846209 116.91666793823244 6.2705068588256845 79.250000000000014 124.58333206176759 29.326839447021488 12.500000000000002 96.250000000000014 0.22583333402872088 0.65583333373069774 92.916667938232436
decision_type=2 2 2 2 2 2 2 2 2 2 2 2 2 2 2 2 2 2 2 2 2 2 2 2 2 2 2
left_child=1 18 11 4 10 7 8 -5 12 -7 -3 15 -4 17 -6 25 -15 -8 23 21 -21 -20 -13 26 -25 -2 -1
right_child=2 3 6 5 14 9 13 -9 -10 -11 -12 22 -14 16 -16 -17 -18 -19 19 20 -22 -23 -24 24 -26 -27 -28
leaf_value=-0.071774017332157505 0.035484929239658194 -0.011380343395791062 -0.020062489106238399 0.079110024837009907 -0.062823466434960937 0.09150021389552615 0.082478909505487114 -0.013959020531812152 -0.075553853619390876 0.027874759286248597 0.10627610532700277 0.021583159947357506 0.065865062788060244 0.083931621866345896 -0.021531464366735854 0.068066157723922507 0.1191305120759272 0.023260056797882428 -0.029592453158862775 -0.052974399964288724 0.02100985141901765 -0.064653577862580788 0.0060154860166044891 -0.072389190471125117 -0.028587791248585445 0.042085648565243751 -0.0717704043961713
leaf_weight=24.726347073912628 12.377803713083269 88.479711890220642 2.692978084087378 2.9072581678628913 28.62193663418293 6.1997511684894553 46.986793801188469 31.339918777346611 1.3429642617702473 28.976529642939568 1.3647548854351033 12.713463217020035 18.305966883897781 9.5165152251720446 9.4639750123023969 15.313859194517134 19.583489760756493 2.019733563065528 3.4517857730388632 61.417784780263901 1.0696963220834721 51.12466724216938 10.468503877520561 1.068146899342536 1.0978116095066071 16.94446574151516 2.1132250130176535
leaf_count=117 54 400 12 13 132 27 200 142 6 127 6 56 79 41 43 66 82 9 16 287 5 239 47 5 5 73 10
internal_value=0.000520682 -0.030196 0.0632118 -0.00859512 -0.0223855 0.0168172 0.0806817 -0.00605835 0.0470072 0.0390886 -0.00959312 0.0373362 0.0548454 0.0903142 -0.0525628 0.0491687 0.107619 0.0800383 -0.0593808 -0.0567095 -0.0517079 -0.0624361 0.0145531 -0.0701619 -0.0501885 0.0392993 -0.0717737
internal_weight=511.69 343.423 168.267 197.354 127.93 69.4235 100.448 34.2472 22.3419 35.1763 89.8445 67.8181 20.9989 78.1065 38.0859 44.6361 29.1 49.0065 146.069 117.064 62.4875 54.5765 23.182 29.0055 2.16596 29.3223 26.8396
internal_count=2299 1574 725 890 581 309 429 155 97 154 406 296 91 332 175 193 123 209 684 547 292 255 103 137 10 127 127
is_linear=0
shrinkage=0.05


Tree=3
num_leaves=28
num_cat=0
split_feature=5 5 8 9 8 14 20 5 20 1 18 18 5 11 15 11 1 19 5 14 8 15 15 5 2 1 8
split_gain=330.798 82.3913 28.216 24.6969 10.5987 11.6841 10.2182 9.68455 13.43 7.69758 6.46663 4.47553 4.01896 3.52295 3.19075 2.04813 5.45402 2.81604 2.50352 6.11518 1.96846 1.35627 1.25293 1.19299 0.883233 0.421105 0.0638653
threshold=8.8398222923278826 7.5664544105529794 0.819288730621338 0.6902303695678712 0.83396223187446605 115.41666793823244 79.583332061767592 9.0824451446533221 97.083332061767592 0.25416666269302374 77.166667938232436 78.416667938232436 9.0086174011230487 3.5000000000000004 66.796749114990249 2.5000000000000004 0.26583333313465124 81.250000000000014 7.3914470672607431 89.583332061767592 0.85493615269660961 66.721286773681655 65.205329895019545 8.9884066581726092 0.14000000059604648 0.64166665077209484 0.7786984145641328
decision_type=2 2 2 2 2 2 2 2 2 2 2 2 2 2 2 2 2 2 2 2 2 2 2 2 2 2 2
left_child=1 15 6 10 13 -6 26 8 12 -8 22 14 -5 -4 -9 16 17 -1 24 -20 -13 -12 -2 -10 -17 -23 -3
right_child=3 2 4 7 5 -7 9 11 23 -11 21 20 -14 -15 -16 18 -18 -19 19 -21 -22 25 -24 -25 -26 -27 -28
leaf_value=-0.066687766794963993 0.041200889299778283 -0.059068614330562985 0.045103566946638314 -0.047592557316308695 -0.040770267476174217 0.044237238038352195 -0.047122808675323861 0.094457469338104977 0.11203219286615934 -0.0092874971563836478 0.0028112081721744274 0.072078535261580493 0.023811746355218141 0.13402537926344851 0.0097166441722578798 -0.068660845256289418 0.065580753068227929 -0.032725808734199752 0.070559778727814687 -0.0518911682397621 0.034572624680000621 0.031538119746295855 0.061552986946074688 0.069660002937296614 -0.058725522705002954 0.018627842890965713 -0.052682080922105003
leaf_weight=11.844726830720907 16.894559741020203 7.8289736062288267 23.921389520168308 3.5765083581209165 8.981137081980707 7.3506159186363211 15.04159504175186 38.286229267716408 2.842631071805954 126.49748116731644 9.5970911532640439 40.385591939091682 4.3888600617647171 1.1682567596435536 1.1440201550722111 49.263882145285606 1.0809763520956028 12.59298427402973 1.0546472668647791 30.672113254666328 3.8301762640476218 12.262131839990616 13.69001278281212 3.9968822747468948 40.974583253264427 13.025946959853172 7.8289736062288284
leaf_count=57 72 37 104 16 41 32 69 159 12 574 43 169 19 5 5 238 5 59 5 146 16 53 58 17 197 57 37
internal_value=-0.00118414 -0.0288963 -0.00787448 0.0573274 0.0288383 -0.00250998 -0.0175483 0.0731539 0.0358787 -0.0133083 0.0335282 0.0797514 -0.00824931 0.0492441 0.0919988 -0.0572067 -0.0443253 -0.0491868 -0.0599019 -0.0478207 0.0688296 0.0188146 0.0503107 0.0872707 -0.0641495 0.024888 -0.0558753
internal_weight=510.023 346.102 198.618 163.921 41.4214 16.3318 157.197 98.4509 14.8049 141.539 65.4697 83.646 7.96537 25.0896 39.4302 147.484 25.5187 24.4377 121.965 31.7268 44.2158 34.8852 30.5846 6.83951 90.2385 25.2881 15.6579
internal_count=2302 1606 899 696 182 73 717 413 64 643 283 349 35 109 164 707 121 116 586 151 185 153 130 29 435 110 74
is_linear=0
shrinkage=0.05


Tree=4
num_leaves=26
num_cat=0
split_feature=5 5 9 20 8 8 1 19 20 5 8 15 17 18 1 5 5 11 18 5 17 1 1 1 11
split_gain=317.382 79.8559 24.1616 21.8243 13.5124 11.9783 10.5873 7.00133 6.91558 6.85412 4.64564 3.19077 3.46794 2.60062 2.22468 2.03216 1.98898 2.13552 2.40047 2.36191 0.369719 0.39016 0.275488 0.266194 0.000150403
threshold=8.8398222923278826 7.5843839645385751 0.6902303695678712 79.583332061767592 0.819288730621338 0.83396223187446605 0.29916667938232427 93.750000000000014 98.750000000000014 9.1608777046203631 0.77630442380905162 65.725112915039077 88.750000000000014 80.083332061767592 0.29083332419395452 9.3435916900634783 6.2705068588256845 2.5000000000000004 79.250000000000014 7.5451800823211679 96.250000000000014 0.22583333402872088 0.64166665077209484 0.59916669130325328 2.5000000000000004
decision_type=2 2 2 2 2 2 2 2 2 2 2 2 2 2 2 2 2 2 2 2 2 2 2 2 2
left_child=1 16 10 23 7 -6 8 -5 9 -4 -2 15 -13 22 -10 -8 20 18 -18 -19 24 -22 -12 -3 -1
right_child=2 3 6 4 5 -7 11 -9 14 -11 13 12 -14 -15 -16 -17 17 19 -20 -21 21 -23 -24 -25 -26
leaf_value=-0.069184842828782053 0.057505461656116301 -0.057311214573870096 0.00028079671674585303 -0.013373668629450622 0.043457211759817795 -0.012413678843446019 0.075783695301180662 0.020804163038818258 0.12311008439867616 0.061585867251185401 0.037516454695939033 0.075119053438031769 0.032670713958771087 0.0036715681509766323 0.042091424410036903 0.098400644489134881 -0.057793705685396692 -0.056872055894718054 -0.019851453192387153 -0.015447933175159499 -0.069443800147091964 -0.026129525321873077 0.028628372133057012 -0.070588887395085995 -0.068920869506918919
leaf_weight=7.6143139600753846 14.600872114300726 7.4573526978492719 10.256480917334562 118.79969419538975 26.802839443087578 14.940824896097181 16.858404397964478 17.146857932209969 2.8929734081029883 8.2080053240060789 12.379942327737806 36.141807228326797 5.5505562275648108 10.735036805272101 1.1982420086860655 24.172944039106369 7.3274779170751598 95.903466790914536 9.6696660965681058 3.5691640824079505 1.0079853236675254 1.0736943036317825 29.47526490688324 7.6441981792449951 18.522196486592293
leaf_count=38 61 36 45 543 115 67 70 77 12 34 53 149 23 48 5 98 35 471 46 17 5 5 126 37 93
internal_value=0.000801722 -0.0273971 0.0559794 -0.00632673 -0.00142245 0.02346 0.07093 -0.00906284 0.0405648 0.0275327 0.0325538 0.0792095 0.0694679 0.0256263 0.0993812 0.0891081 -0.0554726 -0.0525871 -0.0362084 -0.0553857 -0.0673826 -0.047103 0.0312573 -0.0640322 -0.0689978
internal_weight=509.95 337.48 172.471 192.792 177.69 41.7437 105.279 135.947 22.5557 18.4645 67.1911 82.7237 41.6924 52.5902 4.09122 41.0313 144.688 116.47 16.9971 99.4726 28.2182 2.08168 41.8552 15.1016 26.1365
internal_count=2309 1585 724 875 802 182 436 620 96 79 288 340 172 227 17 168 710 569 81 488 141 10 179 73 131
is_linear=0
shrinkage=0.05


Tree=5
num_leaves=29
num_cat=0
split_feature=5 5 8 9 1 12 15 8 4 19 19 17 14 10 20 11 5 7 11 5 15 18 17 17 11 5 5 5
split_gain=266.698 63.7566 28.5085 27.1878 12.1971 11.838 10.0751 9.15172 7.51388 6.62659 5.05171 4.76165 4.75542 3.07055 2.51553 2.87974 2.11156 4.69464 2.26079 2.05667 1.74121 0.981409 0.876078 0.588873 1.65199 0.342369 0.125752 0.00166189
threshold=8.7939186096191424 7.5770616531372079 0.819288730621338 0.6902303695678712 0.29916667938232427 13.500000000000002 12.801908969879152 0.83396223187446605 4.7500000000000009 103.75000000000001 106.25000000000001 87.083332061767592 109.58333206176759 9.5000000000000018 93.750000000000014 2.5000000000000004 6.5605244636535653 0.76666668057441723 2.5000000000000004 9.2931122779846209 35.316034317016609 78.000000000000014 73.750000000000014 92.916667938232436 2.5000000000000004 8.8422636985778826 8.9478521347045916 6.2705068588256845
decision_type=2 2 2 2 2 2 2 2 2 2 2 2 2 2 2 2 2 2 2 2 2 2 2 2 2 2 2 2
left_child=1 16 5 12 10 9 -7 13 -9 -3 11 -5 20 -4 15 -6 23 -18 -19 -16 -2 22 -14 27 -25 -22 -23 -1
right_child=3 2 7 4 14 6 -8 8 -10 -11 -12 -13 21 -15 19 -17 17 18 -20 -21 25 26 -24 24 -26 -27 -28 -29
leaf_value=-0.067747320742390912 -0.04588120776154217 -0.010962000479141913 0.049783999354573095 0.0085500268708099906 0.030583401111169053 0.15242184483124252 -0.044268512668984933 -0.022742727052151381 0.056693539107018902 0.098625079146183472 -0.074084330557857139 0.056583615818038203 0.03042354185233739 -0.033941852386772303 0.064086025445633354 0.069569883634859928 0.045276873375156595 -0.032763027851856995 -0.053944511049059667 0.092321181672429475 0.016606916238068811 0.026706006985480688 0.045231579689510949 -0.0050569034191298599 -0.067930919146759403 0.00082943149510328383 0.019132022542985658 -0.068882387104589798
leaf_weight=22.03896754980088 1.760334491729737 87.889132156968117 24.793723121285442 9.038471341133123 5.2688873112201682 0.66128323972225089 42.124964743852615 11.605886831879614 4.003928303718566 1.401463896036147 1.0970383882522572 12.022257208824156 29.896858021616936 1.1456564962863911 9.275512099266054 46.883586183190346 1.2754903733730305 14.476619839668272 97.056241244077682 21.168369501829147 5.5010452866554251 9.9018815159797668 14.999326407909392 1.4899008870124806 3.4965388774871826 9.1702780425548553 12.272911667823792 3.7775154411792746
leaf_count=114 8 401 105 39 22 3 201 53 17 6 5 50 126 5 38 191 6 70 488 85 25 45 62 7 18 41 53 19
internal_value=-0.000648909 -0.0286262 -0.00824038 0.0464964 0.0634611 -0.019604 -0.0412286 0.0278824 -0.00236727 -0.00924197 0.0305206 0.0359694 0.0252142 0.0460861 0.0722979 0.0656311 -0.0532726 -0.0501044 -0.0511952 0.0837186 0.00110733 0.0311201 0.0353707 -0.0648751 -0.0491448 0.00674523 0.0225141 -0.0679134
internal_weight=505.494 317.237 173.626 188.257 104.754 132.077 42.7862 41.5492 15.6098 89.2906 22.1578 21.0607 83.5026 25.9394 82.5964 52.1525 143.611 112.808 111.533 30.4439 16.4317 67.071 44.8962 30.8029 4.98644 14.6713 22.1748 25.8165
internal_count=2303 1513 791 790 430 611 204 180 70 407 94 89 360 110 336 213 722 564 558 123 74 286 188 158 25 66 98 133
is_linear=0
shrinkage=0.05


Tree=6
num_leaves=28
num_cat=0
split_feature=5 5 8 8 10 9 18 15 1 8 20 5 8 1 18 8 1 10 15 20 8 1 9 19 1 1 5
split_gain=252.153 69.0371 19.5247 14.2067 11.421 11.0889 9.56556 7.45214 6.88875 6.50155 5.27033 6.42024 4.31802 3.79497 3.33573 3.26731 2.30274 2.43961 2.91815 1.92343 1.45022 1.10791 1.03155 0.835281 0.322047 0.270419 0.00394579
threshold=8.8398222923278826 7.5664544105529794 0.8198755979537965 0.79770097136497509 7.5000000000000009 0.71155238151550304 75.500000000000014 29.498116493225101 0.29916667938232427 0.83396223187446605 97.083332061767592 9.0086174011230487 0.77843356132507335 0.29083332419395452 77.166667938232436 0.83891728520393383 0.22583333402872088 8.5000000000000018 29.326839447021488 99.583332061767592 0.85493615269660961 0.65583333373069774 0.6884901523590089 70.416667938232436 0.62999999523162853 0.64166665077209484 6.5605244636535653
decision_type=2 2 2 2 2 2 2 2 2 2 2 2 2 2 2 2 2 2 2 2 2 2 2 2 2 2 2
left_child=1 16 4 12 7 -6 19 -3 10 -8 11 -5 24 -12 15 -10 23 22 -19 -4 -16 25 -18 -1 -2 -14 -25
right_child=3 2 6 8 5 -7 9 -9 14 -11 13 -13 21 -15 20 -17 17 18 -20 -21 -22 -23 -24 26 -26 -27 -28
leaf_value=-0.023341978446839887 0.041294305371582664 0.074606148814422721 0.065442799492029344 -0.030055423301053492 -0.041144562738234844 0.017213885134082962 0.025360013225932544 -0.0061021834541704015 0.022662016757629105 -0.029539840924076743 0.10338762532112032 0.040755427139450622 0.007753757566720045 0.027002890283035492 0.062756654852353516 0.083232060668273419 -0.047496985920607332 -0.0081703152365183995 -0.05128432994187937 0.033666490729736757 0.038211936171015842 0.030847407784834437 -0.058241600289504029 -0.066645146018077098 0.052547697119119358 0.018766226325341948 -0.06795904427870951
leaf_weight=1.1393852233886743 11.390808820724487 2.9501665979623786 10.052986547350885 4.43133117258549 49.416848599910736 9.7451884746551496 12.710464641451837 93.705031186342239 2.3833137750625601 9.3670698851346952 4.1658432483673087 11.529716089367865 9.6134557127952576 2.6671033650636673 39.085665822029114 33.828892633318901 48.668906509876251 7.3780995160341254 8.3852064311504346 9.0486990213394147 7.1133444011211386 17.518409267067909 41.288994118571281 19.110163271427158 14.388046324253082 13.268423169851303 8.1515291184186918
leaf_count=6 48 13 42 20 237 44 54 429 10 44 17 48 43 11 158 136 250 37 42 38 29 73 213 102 59 57 42
internal_value=0.00050607 -0.0249755 -0.00613725 0.0497371 -0.0142294 -0.0315317 0.0244825 -0.00363876 0.0611547 0.00206707 0.0368268 0.0210959 0.0315865 0.0735724 0.0678835 0.0792456 -0.0526448 -0.0492491 -0.0311046 0.05039 0.0589775 0.0213844 -0.0524286 -0.065285 0.0475752 0.0141395 -0.067038
internal_weight=502.503 331.119 196.996 171.384 155.817 59.162 41.1792 96.6552 105.205 22.0775 22.794 15.961 66.1791 6.83295 82.4112 36.2122 134.122 105.721 15.7633 19.1017 46.199 40.4003 89.9579 28.4011 25.7789 22.8819 27.2617
internal_count=2302 1593 901 709 723 281 178 442 429 98 96 68 280 28 333 146 692 542 79 80 187 173 463 150 107 100 144
is_linear=0
shrinkage=0.05


Tree=7
num_leaves=30
num_cat=0
split_feature=6 7 18 6 20 1 9 20 1 20 18 8 11 11 1 15 20 18 15 1 1 12 15 12 15 1 10 18 7
split_gain=187.396 72.7693 20.2212 14.1617 13.9827 12.8698 10.8829 9.79314 8.00378 5.77357 5.37221 4.30285 4.13991 3.37035 2.44431 1.98562 1.46884 1.46718 2.86602 4.91315 1.21612 1.16098 1.14847 0.939059 0.822997 0.794414 0.596772 0.526111 0.00361211
threshold=7.4576444625854501 0.83333334326744091 74.250000000000014 8.2275519371032733 82.916667938232436 0.62166666984558117 0.68710875511169445 97.083332061767592 0.28749999403953558 78.750000000000014 77.166667938232436 0.83891728520393383 2.5000000000000004 2.5000000000000004 0.30416667461395269 35.316034317016609 96.250000000000014 80.916667938232436 29.450956344604496 0.2624999880790711 0.60666668415069591 14.500000000000002 16.935334205627445 13.500000000000002 35.316034317016609 0.23583333194255832 8.5000000000000018 89.250000000000014 0.76666668057441723
decision_type=2 2 2 2 2 2 2 2 2 2 2 2 2 2 2 2 2 2 2 2 2 2 2 2 2 2 2 2 2
left_child=1 17 4 7 20 9 -6 8 16 -4 21 -10 14 -12 -9 -7 -2 18 19 -1 -3 26 -15 -14 -20 28 -5 -27 -19
right_child=3 2 5 10 6 15 -8 12 11 -11 13 -13 23 22 -16 -17 -18 25 24 -21 -22 -23 -24 -25 -26 27 -28 -29 -30
leaf_value=-0.039689481527279497 -0.058375553763767067 -0.045688659376516276 -0.050329234962713222 0.080047744972629523 -0.050283617793712654 -0.039984403509537469 0.032700644069427826 -0.039640085546779245 0.020598866022728177 -0.016900921792096311 -0.0084082001082181248 0.064325989596033945 0.088668494818314098 0.090264766663712165 0.050453040357453252 0.018823346238847363 0.0066999757041262559 -0.065576883154802729 -0.066431149731673161 0.063242028550268725 -0.015287506413892 0.044169186686742475 0.056866709722592446 0.06329725434042395 -0.049100152456127491 -0.059025728791639545 0.098023989627177691 -0.045436178686680005 -0.066826812864685017
leaf_weight=5.3579991459846488 3.4410702139139167 6.2720616459846479 14.321115761995314 8.2453451305627876 4.2432308644056311 1.5119292140007043 57.339750215411186 1.3266800343990337 35.944631293416023 131.72626121342182 1.942389428615569 6.6698811948299399 6.9614928066730499 2.7312416136264792 1.7406097650527952 28.349123820662498 1.1592373698949812 14.125074490904808 8.1816962063312513 1.4794255495071409 6.9177494049072266 1.4838954806327809 44.727556109428406 7.6603798568248749 42.085472628474236 18.878633752465252 10.491539567708967 11.436612620949743 9.7834563553333282
leaf_count=28 16 31 74 33 20 7 247 6 151 614 8 27 28 11 7 124 5 78 44 7 32 6 180 31 223 100 42 60 52
internal_value=-0.00101937 -0.0197442 -0.00480503 0.0493691 0.0169763 -0.0140635 0.0269828 0.0325671 0.0206791 -0.0201788 0.0650326 0.0274429 0.0642979 0.0561467 0.0114855 0.0158458 -0.0419771 -0.0533831 -0.0477898 -0.017418 -0.029744 0.0867418 0.0587888 0.0753765 -0.051921 -0.0592736 0.0901134 -0.053899 -0.0660884
internal_weight=496.536 362.01 250.681 134.526 74.7728 175.908 61.583 64.904 47.2148 146.047 69.622 42.6145 17.6892 49.4012 3.06729 29.8611 4.60031 111.328 57.1046 6.83742 13.1898 20.2208 47.4588 14.6219 50.2672 54.2238 18.7369 30.3152 23.9085
internal_count=2292 1741 1149 551 330 819 267 271 199 688 280 178 72 199 13 131 21 592 302 35 63 81 191 59 267 290 75 160 130
is_linear=0
shrinkage=0.05


Tree=8
num_leaves=30
num_cat=0
split_feature=5 8 5 6 5 18 5 16 1 15 8 9 18 11 1 18 11 1 15 5 15 15 2 1 12 10 16 1 1
split_gain=191.029 59.5198 21.1462 17.0328 11.3862 10.6512 7.23149 6.54447 5.59126 4.8534 5.96005 5.46204 5.278 4.74133 4.17722 3.94463 2.91134 6.46259 2.38298 2.12182 1.72644 1.47084 1.18078 1.00833 0.917965 0.863276 0.24737 0.149979 0.00186302
threshold=8.2087655067443865 0.77882805466651928 8.7939186096191424 8.2275519371032733 7.394740343093873 80.916667938232436 8.625925540924074 88.250000000000014 0.26083332300186163 61.860441207885749 0.80850049853324901 0.71011140942573558 66.750000000000014 3.5000000000000004 0.62666666507720958 77.166667938232436 2.5000000000000004 0.26916667819023138 65.725112915039077 6.7498867511749276 35.316034317016609 16.935334205627445 0.11499999836087228 0.60666668415069591 14.500000000000002 8.5000000000000018 85.333332061767592 0.59916669130325328 0.62999999523162853
decision_type=2 2 2 2 2 2 2 2 2 2 2 2 2 2 2 2 2 2 2 2 2 2 2 2 2 2 2 2 2
left_child=4 2 6 5 16 7 27 -3 -7 10 13 -12 -11 -6 20 24 17 19 -14 -1 -4 -17 26 -8 -5 -24 -18 -2 -16
right_child=1 3 14 15 9 8 23 -9 -10 12 11 -13 18 -15 28 21 22 -19 -20 -21 -22 -23 25 -25 -26 -27 -28 -29 -30
leaf_value=-0.056803750647238416 -0.044115579442451813 0.023176972358577862 -0.042774552709071635 0.082651582261545398 -0.031466080087922892 -0.073374889316556585 -0.019011947044425308 0.048286044793385725 0.0074146529998635538 0.050795798468159584 0.048165668930752845 -0.036275880158886366 -0.056366677292689439 0.060833838613764436 0.034188326593300948 0.086771454673670839 -0.051376035336999019 0.097409548379840963 -0.03035937734132671 -0.023688329659816862 0.0092006722560789636 0.050633560822448888 -0.053691702515671749 -0.004926273337572811 0.041784630766920718 -0.029668141053106535 -0.065255638053496601 -0.053109300781550219 0.033350011968010289
leaf_weight=10.491059288382536 12.607417345046999 49.511229887604713 1.7020382881164575 17.669548407197002 21.729975998401645 2.3757242560386684 25.134732976555824 54.535193532705307 21.73194907605648 1.5766078680753697 6.2608163058757764 2.758975088596344 16.769870549440384 1.4865366220474232 12.737896502017975 2.9948353320360175 3.5866016894578925 0.87447203695773978 18.551357731223106 8.9754400402307493 26.067311495542526 47.063441753387451 45.159364283084869 25.693029537796974 1.4899822175502766 4.0771248340606681 30.589315220713615 7.3308049142360678 13.815436363220215
leaf_count=57 65 212 8 71 106 11 117 227 97 7 27 13 81 7 53 12 20 4 96 46 117 189 247 119 6 22 171 39 56
internal_value=0.000356996 0.0230927 -0.00389071 0.0401939 -0.0420484 0.0293992 -0.0219025 0.0363377 -0.000546865 -0.0263291 -0.0121557 0.0223367 -0.0387119 -0.0255562 0.0195731 0.06018 -0.0525226 -0.0355619 -0.0427072 -0.0415352 0.00601501 0.0527956 -0.0566587 -0.0118918 0.0794735 -0.0517024 -0.063799 -0.0474224 0.0337522
internal_weight=495.348 322.461 125.089 197.372 172.888 128.154 70.766 104.046 24.1077 69.1341 32.2363 9.01979 36.8978 23.2165 54.3227 69.2178 103.753 20.341 35.3212 19.4665 27.7693 50.0583 83.4124 50.8278 19.1595 49.2365 34.1759 19.9382 26.5533
internal_count=2303 1399 574 825 904 547 340 439 108 337 153 40 184 113 234 278 567 107 177 103 125 201 460 236 77 269 191 104 109
is_linear=0
shrinkage=0.05


Tree=9
num_leaves=27
num_cat=0
split_feature=5 4 5 5 5 6 20 17 2 4 1 1 1 14 19 1 10 5 11 12 1 1 15 17 18 11
split_gain=190.562 43.6602 25.4341 19.7354 12.8056 8.6515 8.72637 5.12258 7.7259 4.67045 4.00235 3.68762 3.59204 3.32567 2.91287 2.58962 2.57268 2.17819 2.40211 1.37075 0.892285 0.74019 0.897494 0.568826 0.472895 0.0160845
threshold=8.7765588760375994 4.4166667461395273 8.1850438117980975 8.8545770645141619 8.5495877265930194 8.3531775474548358 97.083332061767592 86.250000000000014 0.14000000059604648 4.5833332538604745 0.28749999403953558 0.28083333373069769 0.28083333373069769 122.91666793823244 105.41666793823244 0.66750001907348644 7.5000000000000009 6.7498867511749276 2.5000000000000004 13.500000000000002 0.24416667222976687 0.58666664361953746 68.763889312744155 100.41666793823244 81.333332061767592 2.5000000000000004
decision_type=2 2 2 2 2 2 2 2 2 2 2 2 2 2 2 2 2 2 2 2 2 2 2 2 2 2
left_child=1 4 9 13 17 6 10 12 -9 11 -5 -3 -4 16 -11 23 24 20 -19 -8 -1 25 -23 -7 -2 -6
right_child=3 2 7 5 21 15 19 8 -10 14 -12 -13 -14 -15 -16 -17 -18 18 -20 -21 -22 22 -24 -25 -26 -27
leaf_value=-0.062608237521758023 0.011477703133623382 -0.036286937766634046 0.063041928074778597 -0.0070503850525124303 -0.025485195315614963 0.077187197293335286 0.088277801392070102 -0.021739703484547422 0.033754744095748482 -0.0045727578344551649 0.032812620291786228 0.055142786055970616 0.024340052232024595 0.075915356177070292 0.079530923702910997 0.051947539976275693 -0.071623867377962377 -0.02703402655534606 -0.049071308558112897 0.057860776502932289 -0.012772950310531508 -0.017279776919385651 0.01143025847926119 0.047302626112063761 0.0013024401219885974 -0.032049442700451632
leaf_weight=30.29370699822903 28.269216313958168 38.64153279364109 10.349359005689623 6.8021702617406836 1.0666318535804729 18.042462348937992 6.4540680199861518 11.479195013642311 13.825412675738335 6.8125652521848661 84.741818159818649 1.1352365463972081 14.250960379838942 1.7446218281984318 1.2127851843833921 35.241200745105743 1.0536781549453724 14.286731809377669 91.961492076516151 8.6925274133682233 0.92563770711421867 30.803321987390518 2.9859722554683676 1.7464295178651799 19.15628045797348 7.4604182541370392
leaf_count=176 127 193 44 30 5 73 26 53 59 30 348 5 60 7 5 141 5 72 504 35 5 144 14 7 87 35
internal_value=-0.00022872 -0.0274951 -0.00059207 0.0354701 -0.042116 0.0439727 0.0356672 0.024375 0.00858021 -0.0266574 0.0298506 -0.0336775 0.0406219 0.0080916 0.00813693 0.0600753 0.00565082 -0.0495197 -0.0461081 0.0708217 -0.0611306 -0.0180646 -0.0147427 0.0745498 0.00736767 -0.0312283
internal_weight=489.435 277.491 97.707 211.944 179.784 161.721 106.691 49.9049 25.3046 47.8021 91.544 39.7768 24.6003 50.2238 8.02535 55.0301 48.4792 137.468 106.248 15.1466 31.2193 42.3163 33.7893 19.7889 47.4255 8.52705
internal_count=2290 1404 449 886 955 660 439 216 112 233 378 198 104 226 35 221 219 757 576 61 181 198 158 80 214 40
is_linear=0
shrinkage=0.05


Tree=10
num_leaves=29
num_cat=0
split_feature=5 5 20 20 8 5 20 5 20 19 20 8 20 9 9 20 11 1 15 16 8 5 14 10 12 2 13 1
split_gain=177.389 52.2598 16.2883 9.49963 9.37481 7.67704 5.899 5.19132 7.39395 4.84284 5.7408 4.72169 4.2258 3.75873 3.7454 3.38745 2.78054 4.83719 2.79264 2.64382 2.29201 2.10268 6.44796 1.75465 1.39013 0.72863 0.708329 0.081203
threshold=8.2087655067443865 8.8545770645141619 96.250000000000014 78.750000000000014 0.79770097136497509 7.5451800823211679 92.916667938232436 9.0824451446533221 97.083332061767592 99.583332061767592 94.583332061767592 0.80905544757843029 101.25000000000001 0.69762983918190014 0.70501962304115307 101.25000000000001 2.5000000000000004 0.2624999880790711 65.457721710205092 96.583332061767592 0.77630442380905162 7.369070529937745 89.583332061767592 8.5000000000000018 14.500000000000002 0.33500000834465032 3.5000000000000004 0.59916669130325328
decision_type=2 2 2 2 2 2 2 2 2 2 2 2 2 2 2 2 2 2 2 2 2 2 2 2 2 2 2 2
left_child=5 2 3 27 20 16 -5 8 -6 13 11 -11 14 24 -4 -15 17 18 -1 -9 -3 26 -23 -14 -7 -22 -18 -2
right_child=1 4 12 6 7 9 -8 19 -10 10 -12 -13 23 15 -16 -17 21 -19 -20 -21 25 22 -24 -25 -26 -27 -28 -29
leaf_value=-0.045693850216533299 -0.042546334938183508 0.041820963132232054 0.073095490834888491 0.0013564123269148797 -0.0064016824699498799 -0.06403447763534019 -0.039408088593372477 0.048869048405794382 0.06382032009863596 -0.055899708552462325 0.089958710451770812 0.036885205689470228 0.020312617981775121 -0.028107385956938603 0.029710504364155128 0.025870324837447601 -0.060858468053376406 0.049350242059657712 0.021502575859187467 0.06750794992511569 0.0089702976228167846 0.084529496193633522 -0.045897159926784545 -0.035221250752564486 -0.027916434702130562 0.023254348006455129 -0.049913269172600319 -0.050363836954474731
leaf_weight=17.460724025964744 6.5170115232467634 14.89899158477783 8.2848261892795616 109.10817359387875 8.9193664640188199 9.4011373519897443 9.660472020506857 62.494852945208549 6.4662088602781287 2.966478392481803 1.7936841994524 2.549598217010498 3.8274982124567023 20.755781993269924 12.450466111302374 3.3799057006835929 48.200931012630463 1.6551140695810307 1.6964071393012989 27.352004408836365 12.622998043894766 0.98040090501308697 28.33183117210865 2.2635696083307266 3.7175355404615393 30.497778013348579 21.320037171244621 6.7752932906150818
leaf_count=97 36 60 35 502 39 47 44 251 26 14 8 11 16 100 52 15 283 8 9 111 53 5 158 10 19 125 125 38
internal_value=-0.000376189 0.0211832 0.000769753 -0.00644558 0.0410509 -0.0426705 -0.00195931 0.0499477 0.023111 -0.0249563 0.0122541 -0.0130134 0.0362894 -0.0322574 0.0470451 -0.0205485 -0.0492685 -0.0326582 -0.0397435 0.0545433 0.0249144 -0.0527663 -0.0415348 -0.000324942 -0.0537994 0.0190729 -0.0575019 -0.046531
internal_weight=486.349 322.14 158.887 132.061 163.252 164.21 118.769 105.232 15.3856 44.5641 7.30976 5.51608 26.8264 37.2544 20.7353 24.1357 119.645 20.8122 19.1571 89.8469 58.0198 98.8332 29.3122 6.09107 13.1187 43.1208 69.521 13.2923
internal_count=2297 1398 733 620 665 899 546 427 65 214 33 25 113 181 87 115 685 114 106 362 238 571 163 26 66 178 408 74
is_linear=0
shrinkage=0.05


Tree=11
num_leaves=25
num_cat=0
split_feature=5 5 20 8 8 8 20 5 8 15 15 8 5 8 18 18 11 12 17 4 5 2 15 11
split_gain=160.587 45.7863 11.0207 9.65181 7.75947 7.01523 5.6083 4.84145 3.35966 3.00098 2.90684 3.16663 2.36081 2.22341 2.67182 2.04438 1.43552 0.741573 0.435241 0.402891 0.0913808 0.0769413 0.0449102 0.000567941
threshold=8.8398222923278826 7.5770616531372079 79.583332061767592 0.79770097136497509 0.819288730621338 0.83396223187446605 102.91666793823244 9.3435916900634783 0.77630442380905162 66.796749114990249 68.811824798583999 0.82055091857910167 6.2705068588256845 0.81477797031402599 76.750000000000014 79.250000000000014 3.5000000000000004 13.500000000000002 96.250000000000014 4.2500000000000009 8.5290699005126971 0.33500000834465032 68.91266250610353 2.5000000000000004
decision_type=2 2 2 2 2 2 2 2 2 2 2 2 2 2 2 2 2 2 2 2 2 2 2 2
left_child=1 12 20 8 6 -6 -4 10 -2 17 11 -5 18 15 -15 -14 21 -9 23 -20 -3 -10 -18 -1
right_child=3 2 4 7 5 -7 -8 9 16 -11 -12 -13 13 14 -16 -17 22 -19 19 -21 -22 -23 -24 -25
leaf_value=-0.062715142328969645 0.045278742772760977 -0.056604939724496754 -0.0070368134606841534 -0.0024059134547395264 0.031760222568679858 -0.011017869572476306 -0.070062871870617272 0.085744123518182988 0.011504015750970778 0.047819185548083204 -0.037274647696202153 0.042625767783185865 -0.052265089701786963 0.012886100795188316 -0.064891564349529279 -0.03738881523848029 0.02398287479559956 0.065770468751715161 -0.062471118754265358 -0.01426498360754213 -0.047910447794161357 0.0057217504292975214 0.027937977091083699 -0.062141188679804393
leaf_weight=6.1402159035205885 14.694650188088415 6.0169756114482862 128.75155816972256 4.3471335172653189 26.126351445913315 15.136162817478178 3.6291341781616202 6.0746249258518246 13.840564012527466 33.709423571825027 1.321043699979781 38.290532305836678 41.874689728021622 3.6583544164896002 1.5815061926841734 51.495416253805161 17.418054834008217 19.774488255381584 0.79881973564624675 0.94759084284305573 6.0716118663549423 9.8456875681877136 12.207952141761782 14.461049050092697
leaf_count=38 59 34 603 19 108 69 18 25 58 135 6 155 244 19 9 297 71 81 5 5 35 44 50 92
internal_value=5.81613e-07 -0.0216678 -0.00607727 0.0387442 -0.00286368 0.0160681 -0.00876463 0.0483577 0.024111 0.0576475 0.0357714 0.0380346 -0.0456073 -0.0422819 -0.0105889 -0.0440605 0.0182764 0.0704643 -0.0602806 -0.0363148 -0.052238 0.0091005 0.0256126 -0.0623123
internal_weight=478.214 306.689 185.732 171.524 173.643 41.2625 132.381 103.517 68.0069 59.5585 43.9587 42.6377 120.958 98.61 5.23986 93.3701 53.3123 25.8491 22.3477 1.74641 12.0886 23.6863 29.626 20.6013
internal_count=2279 1576 867 703 798 177 621 421 282 241 180 174 709 569 28 541 223 106 140 10 69 102 121 130
is_linear=0
shrinkage=0.05


Tree=12
num_leaves=31
num_cat=0
split_feature=5 5 4 5 5 9 19 5 20 20 17 9 20 5 5 3 5 15 15 16 20 1 16 18 19 1 11 4 1 5
split_gain=139.748 46.8148 18.5692 10.3345 10.0394 7.52765 6.7013 5.41812 6.13193 4.90703 4.60186 4.47503 5.26033 4.23643 3.98987 2.87 2.77036 2.40542 2.58389 6.52154 2.3586 1.60915 1.41168 1.07968 1.06368 0.852621 1.05613 0.246863 0.0289348 0.00174468
threshold=8.2087655067443865 8.8545770645141619 4.4166667461395273 8.5495877265930194 7.5664544105529794 0.6902303695678712 99.583332061767592 9.0824451446533221 97.083332061767592 94.583332061767592 86.250000000000014 0.69762983918190014 101.25000000000001 8.711545944213869 8.2703113555908221 0.3900000005960465 8.7765588760375994 62.851720809936531 63.404565811157234 84.083332061767592 92.916667938232436 0.64166665077209484 86.583332061767592 77.166667938232436 85.416667938232436 0.22249999642372134 2.5000000000000004 4.2500000000000009 0.65583333373069774 6.6507484912872323
decision_type=2 2 2 2 2 2 2 2 2 2 2 2 2 2 2 2 2 2 2 2 2 2 2 2 2 2 2 2 2 2
left_child=4 2 3 27 17 21 11 8 -7 15 14 22 -13 -12 -4 -8 -5 25 19 -19 -9 23 -6 -3 -20 29 -27 -2 -23 -1
right_child=1 5 10 16 6 7 9 20 -10 -11 13 12 -14 -15 -16 -17 -18 18 24 -21 -22 28 -24 -25 -26 26 -28 -29 -30 -31
leaf_value=-0.061527765167113849 -0.043677006470220797 0.041458645139831843 0.094204910788493107 -0.014416821091853589 -0.029864358016292794 -0.011132103429434104 0.041885900704878416 0.044558492932361103 0.055836585183559467 0.10430022981454859 0.014046395474436433 -0.023653089245724578 0.044968922455748156 -0.06951178971035292 0.031628945404647661 -0.034689598956715272 0.0034645718420389816 -0.06232216367462045 -0.041711263837964425 0.094197273191879413 0.061454937961745608 0.013971613478784825 -0.067821744850520033 0.022111592537642794 0.00069497145713555376 -0.035112073654451223 -0.052279880762765234 -0.071432611363461393 0.017111674699777878 -0.062846092188736907
leaf_weight=13.54379776120186 18.834929361939434 15.227832227945328 2.8399419784545925 40.019367575645447 3.9083194583654386 8.0108222216367704 2.4697026312351218 54.465891137719154 5.9622091799974433 1.6217117011547086 25.659716397523884 21.037398770451549 3.2201949656009665 1.6122277081012715 24.722264051437378 2.4251270294189453 47.21742045879364 1.4235850870609277 36.63501301407814 1.2497538477182386 33.270529821515083 12.917285799980165 6.5626653432846069 13.697820022702217 1.5409355461597432 11.16142615675926 45.385890573263168 0.83670209348201652 16.980614751577377 3.0804298371076575
leaf_count=89 107 61 12 189 20 35 11 219 24 7 113 102 14 8 103 11 213 9 219 7 137 54 34 56 9 61 275 4 69 19
internal_value=0.00022374 0.018998 1.26636e-05 -0.0121205 -0.0387447 0.0381263 -0.0176054 0.0463604 0.017443 0.0289209 0.0236683 -0.0263357 -0.0145435 0.00910671 0.0380766 0.00394682 -0.00473841 -0.0463915 -0.0366719 0.0108488 0.0509658 0.0238892 -0.0536541 0.0322968 -0.0399996 -0.0518177 -0.0488913 -0.0448575 0.015755 -0.061772
internal_weight=477.542 322.276 161.743 106.908 155.266 160.533 41.2451 101.709 13.973 6.51654 54.8342 34.7286 24.2576 27.2719 27.5622 4.89483 87.2368 114.021 40.8493 2.67334 87.7364 58.8236 10.471 28.9257 38.1759 73.1715 56.5473 19.6716 29.8979 16.6242
internal_count=2291 1404 749 513 887 655 199 415 59 29 236 170 116 121 115 22 402 688 244 16 356 240 54 117 228 444 336 111 123 108
is_linear=0
shrinkage=0.05


Tree=13
num_leaves=30
num_cat=0
split_feature=5 5 4 5 5 6 16 20 12 8 14 18 8 15 20 5 9 8 19 12 5 11 19 5 17 17 5 14 11
split_gain=135.668 37.2075 17.6625 14.785 8.99211 7.604 6.15782 7.04771 6.01893 5.31773 5.58759 4.75984 4.60485 6.02692 4.43981 4.38056 4.02479 3.97434 3.014 2.4985 1.88712 2.22141 3.61746 1.19952 0.515508 0.493274 0.221079 0.213847 0.000505322
threshold=8.2087655067443865 8.8545770645141619 4.4166667461395273 8.625925540924074 7.5770616531372079 8.3531775474548358 98.666667938232436 94.583332061767592 7.5000000000000009 0.83439567685127269 115.41666793823244 69.666667938232436 0.83810365200042736 66.796749114990249 92.083332061767592 8.7410082817077654 0.70501962304115307 0.80879512429237377 104.58333206176759 12.500000000000002 6.2705068588256845 2.5000000000000004 81.250000000000014 7.3416152000427255 82.916667938232436 96.250000000000014 9.2234463691711444 117.91666793823244 2.5000000000000004
decision_type=2 2 2 2 2 2 2 2 2 2 2 2 2 2 2 2 2 2 2 2 2 2 2 2 2 2 2 2 2
left_child=4 2 3 24 20 12 8 17 -6 14 -11 -9 18 -14 -4 -5 -10 -8 -3 26 25 22 -22 -23 -2 28 -7 -21 -1
right_child=1 5 9 15 6 19 7 11 16 10 -12 -13 13 -15 -16 -17 -18 -19 -20 27 21 23 -24 -25 -26 -27 -28 -29 -30
leaf_value=-0.06134853959594079 -0.036678350281936681 0.025086378549147716 0.063531792871480253 -0.015038992680827132 0.052001766980527442 0.02679202132784635 -0.033250316409555856 -0.010678626495641446 -0.059967161802376726 -0.027479593795843762 0.0305429728051132 0.0987658456177921 0.054200382312379405 -0.037483514906534884 0.025637414373197633 0.0087673009644658965 -0.015527448781780598 0.026077653808116493 -0.028801711821640982 0.066432045376057403 -0.055101988533752026 -0.050850918420522188 -0.0025887564511600466 -0.038569528740977931 -0.053432412922724229 -0.031213189380598458 0.046400689555628441 0.081183227890777629 -0.060754721865463872
leaf_weight=4.972501322627072 7.1062284260988262 75.166770040988922 11.041700795292853 30.088848441839218 1.8822052180767084 1.493346333503722 8.2359159886837023 1.5221745520830143 12.158181667327883 7.9139044582843807 8.7224221080541593 2.8600673973560333 24.316184863448147 1.9351061582565297 25.768011718988419 54.008711218833923 8.7701269984245283 4.2949138879775992 2.6875372976064673 12.352500557899473 5.3503732532262793 39.250081151723862 8.4729311019182187 40.289814531803131 12.973227083683012 1.5164287388324726 38.400706127285957 3.0669211745262137 12.817425265908241
leaf_count=33 41 307 46 143 8 6 41 7 63 38 36 13 99 8 109 245 42 19 12 52 31 248 45 243 74 9 155 13 88
internal_value=0.00162446 0.0202601 0.00303402 -0.00895429 -0.0371456 0.0372922 -0.0166907 0.00617136 -0.033642 0.0264016 0.00294162 0.0607502 0.0293324 0.0474419 0.0370045 0.000249765 -0.0413444 -0.0129158 0.0232262 0.0522732 -0.0443573 -0.0414147 -0.0229142 -0.04463 -0.0475031 -0.0585873 0.0456667 0.0693661 -0.0609207
internal_weight=469.435 317.042 157.623 104.177 152.393 159.419 39.7236 16.9131 22.8105 53.446 16.6363 4.38224 104.106 26.2513 36.8097 84.0976 20.9283 12.5308 77.8543 55.3135 112.67 93.3632 13.8233 79.5399 20.0795 19.3064 39.8941 15.4194 17.7899
internal_count=2274 1384 732 503 890 652 193 80 113 229 74 20 426 107 155 388 105 60 319 226 697 567 76 491 115 130 161 65 121
is_linear=0
shrinkage=0.05


Tree=14
num_leaves=30
num_cat=0
split_feature=5 4 6 5 20 5 18 19 1 20 1 12 20 15 5 19 17 18 5 10 12 5 10 1 15 15 8 5 20
split_gain=111.384 31.0678 17.8058 14.249 8.9411 8.46871 6.55237 8.91175 6.21964 5.51716 5.38787 3.46735 3.23262 3.99621 2.63504 4.16838 2.58618 2.45701 2.232 1.7579 1.20043 1.13279 0.86547 0.798826 0.782012 0.50617 0.20681 0.194924 0.01588
threshold=8.711545944213869 4.4166667461395273 8.2275519371032733 8.1850438117980975 97.083332061767592 8.625925540924074 79.250000000000014 76.250000000000014 0.292499989271164 92.916667938232436 0.31416666507720953 15.500000000000002 88.750000000000014 23.875468254089359 6.7498867511749276 102.08333206176759 82.916667938232436 77.166667938232436 8.9884066581726092 8.5000000000000018 14.500000000000002 9.2251048088073748 9.5000000000000018 0.24416667222976687 68.23163223266603 63.470243453979499 0.77570849657058727 8.6899199485778826 87.083332061767592
decision_type=2 2 2 2 2 2 2 2 2 2 2 2 2 2 2 2 2 2 2 2 2 2 2 2 2 2 2 2 2
left_child=1 5 4 12 8 14 9 -8 16 -5 -10 18 28 -14 23 -16 -2 20 -6 21 25 -19 -21 -1 26 -4 -7 -26 -3
right_child=2 3 17 6 11 24 7 -9 10 -11 -12 -13 13 -15 15 -17 -18 19 -20 22 -22 -23 -24 -25 27 -27 -28 -29 -30
leaf_value=-0.058935839202070288 0.0085081597668318892 -0.073414351468508207 0.059986545238854341 0.07497108056296671 0.084780208165745941 -0.001543901377016929 0.10424609555846583 -0.018681085411964102 0.048626653294859427 0.020853146336938699 0.010355812163455545 -0.022608849921108544 0.014071534765004019 -0.025145235638063958 -0.041460474486872012 0.028830197569086904 -0.049368269275400833 0.0921396893175222 0.043545876350958385 0.01586618286749172 0.013851958184845928 0.043530282496309636 0.049218028870834624 -0.013162979868383466 -0.029586481823959759 0.080329754937073672 -0.012453605150042301 -0.017674840872847812 -0.066057575421923906
leaf_weight=26.965469941496853 2.881046533584593 1.0644686520099633 13.22216628491879 5.7827627062797573 4.6869730353355417 7.1482772529125223 1.624791875481608 15.925824746489523 9.9816188812255842 25.37432461977005 116.9153246730566 1.5450537204742438 7.9775548577308646 34.977763637900352 95.643610373139381 2.1567330062389365 5.8481854349374771 1.2396815419197071 10.94686011970043 9.2058286517858487 1.2451929599046696 36.102367237210274 2.4662551432847968 0.98811043798923393 7.2694964557886106 3.9775531589984885 11.072787746787071 6.5102632194757462 2.3593762814998627
leaf_count=186 13 5 57 24 19 34 7 71 41 106 500 7 40 183 582 13 27 5 45 37 5 146 10 6 35 17 53 31 13
internal_value=-0.00168487 -0.0243287 0.024308 -0.00175343 0.0148624 -0.0379359 0.0171337 -0.0073008 0.0105579 0.0308974 0.0133662 0.0488461 -0.0215888 -0.017862 -0.0437799 -0.0399104 -0.0302664 0.0457038 0.0559078 0.0398501 0.061259 0.045144 0.0229133 -0.0573178 -0.0149708 0.0646911 -0.00817364 -0.0239588 -0.0683448
internal_weight=473.106 252.842 220.264 95.0869 152.805 157.755 48.7077 17.5506 135.626 31.1571 126.897 17.1789 46.3792 42.9553 125.754 97.8003 8.72923 67.459 15.6338 49.0141 18.4449 37.342 11.6721 27.9536 32.0008 17.1997 18.2211 13.7798 3.42384
internal_count=2318 1389 929 449 652 940 208 78 581 130 541 71 241 223 787 595 40 277 64 198 79 151 47 192 153 74 87 66 18
is_linear=0
shrinkage=0.05


Tree=15
num_leaves=30
num_cat=0
split_feature=7 6 18 1 8 20 4 17 15 9 15 1 9 9 8 16 8 18 6 19 1 8 7 20 14 20 20 1 8
split_gain=95.8114 33.0723 11.6811 7.97116 7.09766 6.84139 6.32834 6.25622 6.22812 5.06789 3.8533 3.84177 3.7323 3.3955 2.82029 2.49992 2.80503 2.32425 2.28925 2.20888 2.15282 2.08545 2.90654 2.06845 1.8544 1.1641 0.848076 0.826046 0.381161
threshold=0.90000000596046459 7.4576444625854501 73.833332061767592 0.25583332777023321 0.83810365200042736 78.750000000000014 4.4166667461395273 82.916667938232436 66.796749114990249 0.6890242099761964 14.74286985397339 0.26750001311302191 0.76343256235122692 0.69239291548728954 0.81276315450668346 114.91666793823244 0.80063626170158397 82.166667938232436 8.2275519371032733 75.416667938232436 0.25916665792465216 0.79216349124908458 0.83333334326744091 95.416667938232436 128.75000000000003 91.250000000000014 102.08333206176759 0.26916667819023138 0.81180402636528026
decision_type=2 2 2 2 2 2 2 2 2 2 2 2 2 2 2 2 2 2 2 2 2 2 2 2 2 2 2 2 2
left_child=6 2 7 26 10 -5 15 13 17 -9 25 19 -10 -2 23 21 -17 -6 -12 28 -21 22 -1 -13 -16 -3 -4 -23 -8
right_child=1 4 3 5 8 -7 11 9 12 -11 18 14 -14 -15 24 16 -18 -19 -20 20 -22 27 -24 -25 -26 -27 -28 -29 -30
leaf_value=-0.042870529735285753 0.017607926566890173 -0.0045772771850875298 -0.060797588478040746 -0.041049150142528523 0.056984528257679967 -0.001170268928709625 0.044001898994369348 -0.035778111292008266 0.03267701872885137 0.013515339403541205 0.018484464949001352 -0.067975209560839842 -0.091266703542423999 0.047310927177727648 0.026764095531695703 -0.061653700281876805 0.061744355803606647 0.020545541918371667 0.034860105315363342 -0.027105208464834624 -0.066216538641083664 -0.056811222562650837 -0.0029908532524755334 0.0044287351831682085 -0.035637235545285577 -0.07050084143473305 -0.0092372647751121154 -0.0049428744436934057 -0.0030512111338260321
leaf_weight=59.212750002741814 22.253006502985954 1.4630869179964059 7.4196664243936521 11.820639118552206 38.043550461530685 119.26433058083057 0.89706982672214752 7.5712739229202297 1.2109260708093637 16.748924046754837 46.916004285216331 2.0450065881013866 1.2186575978994367 16.950286775827408 7.9074249863624555 0.76502270996570487 1.1570742428302763 4.9449545592069617 39.15249864757061 12.790627166628839 4.8534208238124839 30.652243360877041 4.9509419798851004 1.9055791497230528 1.4016012251377103 1.2348291873931883 0.89357122778892506 0.78732404112815757 0.82734937965869904
leaf_count=393 95 7 39 75 161 544 5 41 5 72 193 11 5 69 35 5 6 20 159 72 27 204 30 9 7 6 5 4 5
internal_value=-0.00101238 0.013056 0.000320784 -0.00777736 0.0323149 -0.00476636 -0.0374504 0.0180916 0.0483912 -0.00183052 0.0240893 -0.0183892 -0.0294921 0.0304506 0.00234663 -0.0438275 0.0126301 0.052793 0.0259337 -0.032585 -0.0378637 -0.0449626 -0.0397934 -0.0330509 0.0173687 -0.0347503 -0.0552555 -0.0555123 0.0214266
internal_weight=467.26 337.106 202.922 139.398 134.185 131.085 130.153 63.5235 45.4181 24.3202 88.7664 32.6281 2.42958 39.2033 13.2596 97.5254 1.9221 42.9885 86.0685 19.3685 17.644 95.6033 64.1637 3.95059 9.30903 2.69792 8.31324 31.4396 1.72442
internal_count=2309 1496 940 663 556 619 813 277 191 113 365 171 10 164 62 642 11 181 352 109 99 631 423 20 42 13 44 208 10
is_linear=0
shrinkage=0.05


Tree=16
num_leaves=29
num_cat=0
split_feature=5 5 4 5 5 19 15 19 5 19 8 8 5 17 2 12 6 11 1 5 8 17 2 8 18 16 13 16
split_gain=109.542 34.4739 9.99275 8.20205 7.07762 5.89556 4.39135 4.25129 3.97678 3.83363 3.80819 5.9836 3.62699 3.37375 3.25573 3.24309 2.84383 2.81912 5.17543 3.31699 2.57488 2.51521 1.12528 1.469 0.924831 0.820555 0.362126 0.292041
threshold=8.2087655067443865 8.8545770645141619 4.4166667461395273 8.625925540924074 7.394740343093873 99.583332061767592 63.470243453979499 104.58333206176759 9.0340824127197283 98.750000000000014 0.79771843552589428 0.8070310950279237 7.4326169490814218 89.583332061767592 0.14000000059604648 7.5000000000000009 8.2275519371032733 2.5000000000000004 0.26916667819023138 6.7498867511749276 0.77570849657058727 92.083332061767592 0.11499999836087228 0.81477797031402599 83.416667938232436 92.416667938232436 3.5000000000000004 85.333332061767592
decision_type=2 2 2 2 2 2 2 2 2 2 2 2 2 2 2 2 2 2 2 2 2 2 2 2 2 2 2 2
left_child=4 2 3 26 17 15 8 14 9 -3 12 -12 -7 16 -4 -6 -8 18 19 -1 -5 -17 27 -24 -10 -15 -2 -19
right_child=1 6 7 20 5 10 13 -9 24 -11 11 -13 -14 25 -16 21 -18 22 -20 -21 -22 -23 23 -25 -26 -27 -28 -29
leaf_value=-0.055254772725988915 -0.048188663026982548 0.039484321733063966 0.0052968283211582597 0.013267149489432407 0.039110152785887135 -0.0059271623263888922 0.024370104828635546 -0.057607262039402224 0.051928542465411315 -0.04596982208674194 -0.052304236345824845 0.041177939199548458 0.12780844578582634 -0.018497952649243577 0.030658252988202357 -0.026044057723250913 0.041111520975838027 -0.043084724877118341 0.089001458445141693 -0.0092259979347605481 -0.0074390398570546943 -0.052474718903910401 -0.046825849255793209 0.0038646055107801839 0.085618303649176553 0.011132699369881798 -0.033857067068043291 -0.059993147513474759
leaf_weight=8.4466600716114026 7.0419638007879266 3.6755001544952384 22.030400559306145 19.362588346004486 1.6585987955331791 0.85830688476562356 69.390937104821205 1.8335362821817387 30.28401118516922 2.0414007604122162 3.3081553131341934 3.5472514480352402 1.2385832518339155 3.703381344676016 29.733551517128944 40.558956250548363 39.982224851846695 2.8596443533897427 0.90548521280288774 7.2939401119947442 66.85216312110424 11.568537741899489 39.121363237500191 1.4834496229886998 2.1839802712202063 6.3304173797369003 11.782626584172249 23.872935801744461
leaf_count=58 45 15 99 88 7 5 283 8 129 10 18 15 6 15 122 227 164 20 4 43 310 65 267 9 9 26 71 173
internal_value=-0.000465858 0.016101 -0.000353339 -0.00931744 -0.0361722 -0.0234666 0.0326644 0.0172143 0.0474239 0.00897021 0.0141028 -0.00393296 0.0730673 0.0279445 0.0198646 -0.0297197 0.0304901 -0.0456637 -0.027239 -0.0339258 -0.00278873 -0.0319098 -0.0502184 -0.0449739 0.0541947 0.000196303 -0.0392183 -0.0581844
internal_weight=462.951 316.229 158.637 105.039 146.722 62.7384 157.592 53.5975 38.1849 5.7169 8.9523 6.85541 2.09689 119.407 51.764 53.7861 109.373 83.9835 16.6461 15.7406 86.2148 52.1275 67.3374 40.6048 32.468 10.0338 18.8246 26.7326
internal_count=2311 1394 743 514 917 343 651 229 163 25 44 33 11 488 221 299 447 574 105 101 398 292 469 276 138 41 116 193
is_linear=0
shrinkage=0.05


Tree=17
num_leaves=29
num_cat=0
split_feature=5 5 8 8 19 19 8 8 4 20 11 5 15 8 15 1 20 10 15 15 18 5 1 8 1 5 1 5
split_gain=90.6226 32.2621 14.8984 9.91641 6.25188 6.3522 5.30804 4.36482 5.07603 3.33098 2.77789 2.63461 3.22815 3.15976 2.82816 2.57069 2.49384 2.1878 3.2643 1.504 1.43733 0.440876 0.351496 0.350243 0.0376269 0.00354922 0.000909871 0.000429994
threshold=8.7939186096191424 7.5664544105529794 0.819288730621338 0.79770097136497509 91.250000000000014 80.416667938232436 0.80850049853324901 0.83396223187446605 4.7500000000000009 102.91666793823244 3.5000000000000004 9.3435916900634783 66.796749114990249 0.86115548014640819 66.796749114990249 0.22249999642372134 100.41666793823244 8.5000000000000018 26.957915306091312 35.316034317016609 80.500000000000014 8.8422636985778826 0.315833330154419 0.77630442380905162 0.65583333373069774 6.7498867511749276 0.22083333134651187 6.2228615283966073
decision_type=2 2 2 2 2 2 2 2 2 2 2 2 2 2 2 2 2 2 2 2 2 2 2 2 2 2 2 2
left_child=1 15 4 10 5 -3 -6 9 -9 -4 19 13 22 16 -15 25 -5 20 -19 -2 -17 -21 -13 -12 -25 27 -27 -1
right_child=3 2 7 11 6 -7 -8 8 -10 -11 23 12 -14 14 -16 17 -18 18 -20 21 -22 -23 -24 24 -26 26 -28 -29
leaf_value=-0.058654341477729313 -0.042005651429403337 -0.01264133697288909 0.028452218356045746 0.028149252373723684 -0.0099772026128049276 -0.04227098119748135 0.042281393673597047 -0.01817611213778245 0.04591796477738086 0.11273881487637943 0.028847379382242896 0.075798393300261585 0.033879982818108306 0.015728806876090771 -0.082165651056212097 -0.0480603086419433 0.083916451853420768 0.011216050440993728 -0.038813103175712273 0.012310690291033542 -0.033973162146485797 0.0016607884939744612 0.055851410379571476 0.021259577316434783 0.017742579802210202 -0.059823368952080319 -0.061560969370243447 -0.059337949211890374
leaf_weight=10.933332026004793 1.6868066787719715 77.554081797599792 25.326740801334385 37.765777289867401 12.177036225795748 23.591367408633232 8.0856248140335065 11.465028658509253 4.2283355593681327 1.2290664315223683 13.744084388017653 2.4686610400676754 34.33366434276104 1.9716013073921197 1.1789466291666029 37.501893416047096 2.1170876622200003 5.3085516691207877 8.4511770755052549 16.933554366230965 35.012229949235916 22.804862603545189 20.960270166397095 13.366656124591829 17.64266873896122 1.507719784975051 1.5058431476354599 2.913255810737609
leaf_count=87 8 386 104 157 61 131 35 54 17 5 55 11 141 8 5 254 9 32 54 75 239 97 93 54 71 11 10 22
internal_value=-0.000671314 -0.0193772 -0.00557449 0.0260198 -0.0144738 -0.0195522 0.0108761 0.0199988 -0.000906949 0.0323532 0.0135667 0.036667 0.0436442 0.0273016 -0.0209037 -0.0412799 0.0311095 -0.0377902 -0.0195117 0.00423612 -0.0412586 0.00619898 0.0579532 0.0222034 0.0192586 -0.0591366 -0.0606916 -0.0587982
internal_weight=453.766 266.791 163.657 186.975 121.408 101.145 20.2627 42.2492 15.6934 26.5558 86.1786 100.796 57.7626 43.0334 3.15055 103.134 39.8829 86.2739 13.7597 41.4252 72.5141 39.7384 23.4289 44.7534 31.0093 16.8602 3.01356 13.8466
internal_count=2286 1502 793 784 613 517 96 180 71 109 360 424 245 179 13 709 166 579 86 180 493 172 104 180 125 130 21 109
is_linear=0
shrinkage=0.05


Tree=18
num_leaves=29
num_cat=0
split_feature=5 5 20 8 9 20 1 5 15 6 20 17 16 19 19 14 5 9 15 16 19 17 5 16 1 11 14 1
split_gain=93.1269 25.9145 10.7141 10.3265 7.31431 6.44454 5.18636 4.58627 4.43113 4.04099 4.94879 4.00251 3.82047 3.06188 3.01572 4.54655 5.58402 2.47384 2.38353 1.98895 2.28717 1.39711 1.11534 0.909448 0.797767 0.700758 0.647393 0.000396556
threshold=8.2087655067443865 8.8398222923278826 79.583332061767592 0.83810365200042736 0.69762983918190014 96.250000000000014 0.25249999761581426 8.2416429519653338 60.598863601684577 8.2275519371032733 97.083332061767592 92.916667938232436 84.083332061767592 86.250000000000014 100.41666793823244 90.416667938232436 7.3477120399475107 0.71155238151550304 66.796749114990249 86.583332061767592 83.750000000000014 91.250000000000014 9.2701358795166033 109.50000000000001 0.27083334326744085 2.5000000000000004 95.000000000000014 0.59916669130325328
decision_type=2 2 2 2 2 2 2 2 2 2 2 2 2 2 2 2 2 2 2 2 2 2 2 2 2 2 2 2
left_child=4 2 27 9 14 7 12 -4 -7 10 -3 13 17 -8 19 16 -16 -6 22 20 -1 -14 -5 -17 -21 -11 -13 -2
right_child=1 3 5 18 6 8 11 -9 -10 25 -12 26 21 -15 15 23 -18 -19 -20 24 -22 -23 -24 -25 -26 -27 -28 -29
leaf_value=-0.040663557035964748 -0.051115261492013508 0.011940432645937925 0.075690299555107476 0.040593190364378681 -0.028561566543504807 -0.027460554605210265 0.027639449153912504 -0.0035835882470935695 0.033213021264749572 0.00088676927379799722 0.057027690717747916 -0.020787631534335937 -0.061662602632656986 -0.0097456634006299111 -0.059630877466386005 -0.062765860860563238 0.048373143251869651 0.071426053623538835 -0.0080996482563041733 -0.056135982751368357 -0.00060581104637857149 -0.018075489774441147 0.05794021610140368 -0.003034594793547511 -0.04160185241025955 0.035722710921120261 -0.068158067972964961 -0.050480845429095568
leaf_weight=35.084644325077534 4.8466734886169416 82.275510385632515 1.8564833998680104 14.118594750761984 1.4361813068389886 3.4607699662447002 8.2013403326273018 105.84535795450211 23.063668057322502 1.4998820722103108 6.5721393525600424 1.0156002342700952 9.5475134178996068 16.486583605408669 1.7459142655134181 3.8321743607521057 3.8048258423805237 1.0866870284080503 1.7200759947299946 32.70553445070982 3.9662512689828864 2.2769077867269507 26.960395842790604 0.76436370611190785 13.273115709424017 38.486069917678833 2.4886830747127533 5.0087188184261322
leaf_count=245 32 339 8 58 9 15 43 495 95 6 27 5 65 84 13 25 20 6 7 233 24 15 121 5 94 159 14 35
internal_value=0.000194319 0.01516 -0.000474677 0.028285 -0.0341146 0.00321987 -0.0168787 -0.00221712 0.0252967 0.0212162 0.0152756 -0.0044242 -0.0413515 0.00267369 -0.0418182 -0.0160544 0.0144019 0.0145066 0.0495636 -0.0448928 -0.036595 -0.0532695 0.0519782 -0.0528331 -0.0519403 0.034416 -0.0544293 -0.0507928
internal_weight=453.431 315.714 144.082 171.633 137.716 134.226 42.5395 107.702 26.5244 128.834 88.8476 28.1922 14.3473 24.6879 95.1768 10.1473 5.55074 2.52287 42.7991 85.0295 39.0509 11.8244 41.079 4.59654 45.9787 39.986 3.50428 9.85539
internal_count=2297 1397 680 717 900 613 241 503 110 531 366 146 95 127 659 63 33 15 186 596 269 80 179 30 327 165 19 67
is_linear=0
shrinkage=0.05


Tree=19
num_leaves=27
num_cat=0
split_feature=5 5 6 8 14 8 19 19 20 16 11 11 1 16 5 10 16 19 16 5 5 14 1 8 1 1
split_gain=84.9088 26.1034 7.82032 7.30216 4.95233 4.78422 3.94401 7.73132 4.32313 3.7367 3.22447 2.60568 3.55624 5.44571 2.94236 3.11877 2.40122 2.70334 1.39173 0.768448 0.683432 0.300628 0.25386 0.185496 0.182047 0.0455158
threshold=8.7939186096191424 7.5664544105529794 8.3531775474548358 0.819288730621338 125.41666793823244 0.83396223187446605 91.250000000000014 80.416667938232436 94.583332061767592 92.416667938232436 3.5000000000000004 2.5000000000000004 0.26583333313465124 77.000000000000014 7.3416152000427255 8.5000000000000018 116.91666793823244 87.916667938232436 97.833332061767592 6.8337745666503915 8.9753193855285662 116.25000000000001 0.32416665554046636 0.85806119441986095 0.32249999046325689 0.33583334088325506
decision_type=2 2 2 2 2 2 2 2 2 2 2 2 2 2 2 2 2 2 2 2 2 2 2 2 2 2
left_child=1 11 4 6 16 10 7 -3 -8 -7 -5 12 13 -1 19 -16 17 -2 21 -13 -6 23 -22 -4 -20 -26
right_child=2 3 18 5 20 9 8 -9 -10 -11 -12 14 -14 -15 15 -17 -18 -19 24 -21 22 -23 -24 -25 25 -27
leaf_value=0.13464341371293276 0.01448583590928772 -0.0088874330951652768 0.037646699339104923 0.020568685424479535 0.029968939689592106 0.0097820750741573065 -0.0080516545702643393 -0.042123617496871615 0.040841919444340596 -0.041978321796680027 0.096394584429527697 -0.058332492891302171 0.066734119902778694 -0.032141722952244239 -0.036574921260480446 0.015293787058983122 -0.032256500887872942 0.033006257344451055 0.072249568358352376 -0.045175351264096636 0.073565056322768552 0.054052633524298746 0.052391910749021775 0.019526131748812708 0.051972440098812814 0.059077042338465349
leaf_weight=0.50397677719593659 101.29892052710056 77.876207038760185 36.138960212469101 24.959822162985805 1.6885063350200642 8.7356007695198041 14.151780664920809 22.567884206771851 6.6433152109384528 5.80322541296482 1.4854906499385823 20.500409193336964 1.0663704872131337 16.941779270768166 31.333922982215881 3.1934635639190665 2.4139139950275412 24.461123123764992 1.9018723666667927 24.195713743567467 3.9081467241048813 2.7539290040731421 2.2197528183460236 1.4697497785091389 4.9066001474857313 4.1705181002616882
leaf_count=3 422 389 151 102 7 40 68 131 30 27 6 169 5 115 220 20 10 103 9 179 18 13 10 6 23 20
internal_value=0.000110933 -0.018382 0.0257734 -0.00608392 0.0194963 0.0121615 -0.0122516 -0.016355 0.00756815 -0.0108783 0.024828 -0.0387945 -0.0219055 -0.0273236 -0.0427409 -0.0317775 0.01714 0.0180882 0.0423997 -0.05121 0.0581345 0.0381062 0.0658954 0.0369385 0.0581838 0.0552367
internal_weight=447.291 259.959 187.332 162.223 135.99 40.9841 121.239 100.444 20.7951 14.5388 26.4453 97.7356 18.5121 17.4458 79.2235 34.5274 128.174 125.76 51.3416 44.6961 7.81641 40.3626 6.1279 37.6087 10.979 9.07712
internal_count=2296 1504 792 793 570 175 618 520 98 67 108 711 123 118 588 240 535 525 222 348 35 170 28 157 52 43
is_linear=0
shrinkage=0.05


Tree=20
num_leaves=31
num_cat=0
split_feature=5 5 20 18 5 14 5 15 19 8 8 16 18 15 1 8 20 5 4 1 10 15 15 1 1 15 4 5 11 15
split_gain=70.9749 21.1706 9.98183 6.08004 5.84898 5.28294 4.30244 3.87476 6.06118 4.77848 3.61922 4.02979 3.46115 3.08024 3.77091 3.01453 2.87743 2.67862 2.51407 2.36083 1.7908 3.05408 1.39194 0.818177 0.794384 0.548754 0.439998 0.00059882 0.000260405 0.000163477
threshold=8.2087655067443865 8.9299826622009295 84.583332061767592 79.250000000000014 7.5664544105529794 99.583332061767592 8.5414376258850115 61.860441207885749 81.250000000000014 0.80850049853324901 0.83810365200042736 100.33333206176759 83.833332061767592 65.725112915039077 0.25749999284744268 0.83579513430595409 89.583332061767592 9.1166696548461932 4.5833332538604745 0.22083333134651187 8.5000000000000018 29.326839447021488 61.689184188842781 0.32249999046325689 0.29749999940395361 35.316034317016609 4.2500000000000009 6.5605244636535653 2.5000000000000004 33.255096435546882
decision_type=2 2 2 2 2 2 2 2 2 2 2 2 2 2 2 2 2 2 2 2 2 2 2 2 2 2 2 2 2 2
left_child=4 2 6 5 19 -4 26 8 -6 -10 15 17 -5 18 -15 16 -3 -12 -9 27 22 -22 -21 -13 -17 -8 -2 28 -1 -29
right_child=1 10 3 12 7 -7 25 13 9 -11 11 23 -14 14 -16 24 -18 -19 -20 20 21 -23 -24 -25 -26 -27 -28 29 -30 -31
leaf_value=-0.057808874983283791 -0.035968862208421166 0.016484820765429835 0.072890539309057895 -0.022211488709498548 0.084571354039099406 0.015719214324251558 -0.031689489641086664 -0.055240543141269728 -0.027932941278411533 0.022229438242996696 -0.046192871349126453 0.077196644031340189 0.0070481782940370191 -0.030024220159604917 0.069919323510033507 -0.038565632459256004 0.033317123318629821 0.031086780922484875 0.011663426561296935 -0.044768325997048192 0.0069512041062205756 -0.040396364059531342 -0.030445301446480513 0.051348027514350317 -0.00027541285724397448 -0.0068007920496395069 -0.070508438240744126 -0.057975141290083458 -0.057261365465614944 -0.058826205748126394
leaf_weight=3.0356158763170225 15.827066734433174 65.377845704555511 4.385857254266738 17.207082822918892 1.8871567696332956 51.348542138934135 2.3420055657625189 10.396174073219299 12.657330721616747 7.5972093343734732 1.1713826954364801 5.1635350137948972 24.494259148836136 2.8265138566493979 1.4169075638055799 2.0528659075498572 41.5103749781847 26.22424390912056 1.6234149187803275 36.059295065701008 6.4105111509561521 7.2664390876889229 32.029586397111416 7.5194892436265945 3.9820114523172379 40.741149693727493 0.97909384965896684 1.5414055138826364 7.6313155815005302 0.89006970822811116
leaf_count=26 107 265 18 81 9 219 11 60 69 33 5 23 113 16 7 9 174 115 7 270 41 50 232 36 16 190 5 13 69 7
internal_value=-0.000687227 0.0124192 -0.000459646 0.00941432 -0.0312065 0.0202181 -0.0165239 -0.0147437 -0.0011325 -0.0091177 0.0256619 0.0385701 -0.00502514 -0.0332749 0.00334762 0.0210806 0.0230217 0.0277825 -0.0462042 -0.0378713 -0.0347143 -0.0182041 -0.0380307 0.0618716 -0.0133005 -0.00815374 -0.0379811 -0.0575786 -0.0574172 -0.0582867
internal_weight=443.596 310.327 157.325 97.4357 133.269 55.7344 59.8893 38.4047 22.1417 20.2545 153.002 40.0787 41.7013 16.263 4.24342 112.923 106.888 27.3956 12.0196 94.8642 81.7658 13.677 68.0889 12.683 6.03488 43.0832 16.8062 13.0984 10.6669 2.43148
internal_count=2296 1387 744 431 909 237 313 201 111 102 643 179 194 90 23 464 439 120 67 708 593 91 502 59 25 201 112 115 95 20
is_linear=0
shrinkage=0.05


Tree=21
num_leaves=29
num_cat=0
split_feature=5 5 18 9 8 16 5 15 17 2 5 20 15 1 5 8 13 12 17 18 5 1 17 11 2 1 11 1
split_gain=67.6668 27.4974 6.7812 8.13424 4.76105 4.46542 4.38755 3.97884 3.83818 3.56388 3.36266 2.88113 2.51944 2.43798 2.00251 2.01794 3.73479 1.40927 1.34378 1.17552 4.37106 1.27077 0.870828 2.17634 0.00485534 0.000991212 0.000315598 0.000136064
threshold=7.5770616531372079 8.9299826622009295 74.250000000000014 0.6890242099761964 0.83810365200042736 111.16666793823244 7.6784214973449716 66.796749114990249 79.583332061767592 0.33500000834465032 9.2701358795166033 97.083332061767592 66.405673980712905 0.27583333849906927 6.6058630943298349 0.81536862254142772 3.5000000000000004 12.500000000000002 79.583332061767592 79.666667938232436 7.4031300544738778 0.54000002145767223 92.916667938232436 2.5000000000000004 0.14000000059604648 0.26083332300186163 2.5000000000000004 0.21750000119209292
decision_type=2 2 2 2 2 2 2 2 2 2 2 2 2 2 2 2 2 2 2 2 2 2 2 2 2 2 2 2
left_child=14 2 3 12 9 8 -5 10 -4 11 -6 -3 -2 -7 22 19 25 -11 -18 21 -21 -16 24 -24 26 -17 -1 -25
right_child=1 4 5 6 7 13 -8 -9 -10 17 -12 -13 -14 -15 15 16 18 -19 -20 20 -22 -23 23 27 -26 -27 -28 -29
leaf_value=-0.057532813853793087 -0.0032833905411396441 0.00098097127406889472 -0.03031102892394846 0.11342594277317097 0.022663318002561206 0.083220876932743271 0.02077235754365428 -0.025152076242909147 -0.0065808287946494404 0.030284753423280148 0.054220210394799545 0.039757522101435919 -0.045731450414207772 0.012301958246145125 -0.05172466194566893 -0.059528158480618404 -0.0050505733969843621 0.014377148499736526 0.074287509551381567 -0.03564257455280688 0.023379918411392447 -0.031060353326005041 0.028183577926978894 -0.056978212561935006 -0.06080863152647395 -0.062162357265150826 -0.057028492550496725 -0.057861183471975157
leaf_weight=4.4294544979929915 9.1709341406822187 29.309473723173141 20.044656440615654 1.3201780319213856 12.401560962200163 1.8234432041645039 39.733245402574539 2.1881574988365164 113.66416461765766 59.149654179811478 26.438771024346352 5.7261981368064871 5.6487940549850455 3.6130020469427109 18.600583560764793 0.66449667513370447 0.89048419892787967 18.208726182579994 1.3320959210395811 35.274978540837765 3.4430031925439826 12.399407684803007 1.1041157841682427 1.71764113008976 0.98297539353370744 0.77201558649539948 10.352209396660328 0.58487114310264576
leaf_count=39 44 122 110 6 52 8 169 9 554 244 125 24 34 16 139 5 6 73 6 263 21 94 7 16 7 5 96 5
internal_value=-5.97458e-05 0.0100343 -0.00242401 0.0122896 0.0258702 -0.00833218 0.0237519 0.0404485 -0.0101383 0.0205485 0.0441442 0.00731858 -0.0194632 0.0360889 -0.0380633 -0.0343039 0.00188956 0.0265404 0.0425004 -0.0362035 -0.030394 -0.0434593 -0.0524522 -0.0295282 -0.0574059 -0.0609438 -0.0571796 -0.0572025
internal_weight=440.989 348.441 195.018 55.8732 153.423 139.145 41.0534 41.0285 133.709 112.394 38.8403 35.0357 14.8197 5.43645 92.5483 73.3771 3.65909 77.3584 2.22258 69.718 38.718 31 19.1713 3.40663 15.7646 1.43651 14.7817 2.30251
internal_count=2299 1590 941 253 649 688 175 186 664 463 177 146 78 24 709 539 22 317 12 517 284 233 170 28 142 10 135 21
is_linear=0
shrinkage=0.05


end of trees

feature_importances:
pairwise_teammate_logweight_mean=119
avg_usage=70
pairwise_embedding_cos_mean=59
stat_hp_std=51
stat_spd_mean=46
stat_speed_mean=37
stat_def_mean=36
weakness_concentration=33
stat_spa_mean=26
pairwise_embedding_cos_min=20
stat_atk_mean=20
weakness_unique_count=17
avg_viability=15
stat_hp_mean=15
pairwise_teammate_logweight_min=13
type_unique_count=12
min_usage=11
pairwise_teammate_fraction_nonzero=5
max_usage=3
role_unique_count=3

parameters:
[boosting: gbdt]
[objective: binary]
[metric: auc]
[tree_learner: serial]
[device_type: cpu]
[data_sample_strategy: bagging]
[data: ]
[valid: ]
[num_iterations: 400]
[learning_rate: 0.05]
[num_leaves: 31]
[num_threads: 0]
[seed: 0]
[deterministic: 0]
[force_col_wise: 0]
[force_row_wise: 0]
[histogram_pool_size: -1]
[max_depth: 5]
[min_data_in_leaf: 5]
[min_sum_hessian_in_leaf: 0.001]
[bagging_fraction: 0.9]
[pos_bagging_fraction: 1]
[neg_bagging_fraction: 1]
[bagging_freq: 1]
[bagging_seed: 3]
[bagging_by_query: 0]
[feature_fraction: 0.9]
[feature_fraction_bynode: 1]
[feature_fraction_seed: 2]
[extra_trees: 0]
[extra_seed: 6]
[early_stopping_round: 0]
[early_stopping_min_delta: 0]
[first_metric_only: 0]
[max_delta_step: 0]
[lambda_l1: 0]
[lambda_l2: 0]
[linear_lambda: 0]
[min_gain_to_split: 0]
[drop_rate: 0.1]
[max_drop: 50]
[skip_drop: 0.5]
[xgboost_dart_mode: 0]
[uniform_drop: 0]
[drop_seed: 4]
[top_rate: 0.2]
[other_rate: 0.1]
[min_data_per_group: 100]
[max_cat_threshold: 32]
[cat_l2: 10]
[cat_smooth: 10]
[max_cat_to_onehot: 4]
[top_k: 20]
[monotone_constraints: ]
[monotone_constraints_method: basic]
[monotone_penalty: 0]
[feature_contri: ]
[forcedsplits_filename: ]
[refit_decay_rate: 0.9]
[cegb_tradeoff: 1]
[cegb_penalty_split: 0]
[cegb_penalty_feature_lazy: ]
[cegb_penalty_feature_coupled: ]
[path_smooth: 0]
[interaction_constraints: ]
[verbosity: -1]
[saved_feature_importance_type: 0]
[use_quantized_grad: 0]
[num_grad_quant_bins: 4]
[quant_train_renew_leaf: 0]
[stochastic_rounding: 1]
[linear_tree: 0]
[max_bin: 255]
[max_bin_by_feature: ]
[min_data_in_bin: 3]
[bin_construct_sample_cnt: 200000]
[data_random_seed: 1]
[is_enable_sparse: 1]
[enable_bundle: 1]
[use_missing: 1]
[zero_as_missing: 0]
[feature_pre_filter: 1]
[pre_partition: 0]
[two_round: 0]
[header: 0]
[label_column: ]
[weight_column: ]
[group_column: ]
[ignore_column: ]
[categorical_feature: ]
[forcedbins_filename: ]
[precise_float_parser: 0]
[parser_config_file: ]
[objective_seed: 5]
[num_class: 1]
[is_unbalance: 0]
[scale_pos_weight: 1]
[sigmoid: 1]
[boost_from_average: 1]
[reg_sqrt: 0]
[alpha: 0.9]
[fair_c: 1]
[poisson_max_delta_step: 0.7]
[tweedie_variance_power: 1.5]
[lambdarank_truncation_level: 30]
[lambdarank_norm: 1]
[label_gain: ]
[lambdarank_position_bias_regularization: 0]
[eval_at: ]
[multi_error_top_k: 1]
[auc_mu_weights: ]
[num_machines: 1]
[local_listen_port: 12400]
[time_out: 120]
[machine_list_filename: ]
[machines: ]
[gpu_platform_id: -1]
[gpu_device_id: -1]
[gpu_use_dp: 0]
[num_gpu: 1]

end of parameters

pandas_categorical:null
